<?xml version="1.0" encoding="utf-8"?>
<Root>
  <ActivationFunctions>
    <Fn id="0" name="SteepenedSigmoid" prob="1" />
  </ActivationFunctions>
  <Networks>
    <Network id="9888" birthGen="49" fitness="16641.071166992188">
      <Nodes>
        <Node type="bias" id="0" />
        <Node type="in" id="1" />
        <Node type="in" id="2" />
        <Node type="in" id="3" />
        <Node type="in" id="4" />
        <Node type="in" id="5" />
        <Node type="in" id="6" />
        <Node type="in" id="7" />
        <Node type="in" id="8" />
        <Node type="in" id="9" />
        <Node type="in" id="10" />
        <Node type="in" id="11" />
        <Node type="in" id="12" />
        <Node type="in" id="13" />
        <Node type="in" id="14" />
        <Node type="out" id="15" />
      </Nodes>
      <Connections>
        <Con id="17" src="1" tgt="15" wght="1.0628175368684523" />
        <Con id="20" src="4" tgt="15" wght="-0.24772362263016842" />
        <Con id="26" src="10" tgt="15" wght="0.77204504532770923" />
        <Con id="28" src="12" tgt="15" wght="-2.1513646995156366" />
        <Con id="33" src="6" tgt="15" wght="-0.738492574878831" />
        <Con id="36" src="3" tgt="15" wght="-0.99638664023391788" />
        <Con id="40" src="7" tgt="15" wght="4.8583120806142688" />
      </Connections>
    </Network>
  </Networks>
</Root>