<?xml version="1.0" encoding="utf-8"?>
<Root>
  <ActivationFunctions>
    <Fn id="0" name="SteepenedSigmoid" prob="1" />
  </ActivationFunctions>
  <Networks>
    <Network id="38918" birthGen="194" fitness="14503.054077148438">
      <Nodes>
        <Node type="bias" id="0" />
        <Node type="in" id="1" />
        <Node type="in" id="2" />
        <Node type="in" id="3" />
        <Node type="in" id="4" />
        <Node type="in" id="5" />
        <Node type="in" id="6" />
        <Node type="in" id="7" />
        <Node type="in" id="8" />
        <Node type="in" id="9" />
        <Node type="in" id="10" />
        <Node type="in" id="11" />
        <Node type="in" id="12" />
        <Node type="in" id="13" />
        <Node type="in" id="14" />
        <Node type="out" id="15" />
        <Node type="hid" id="46" />
        <Node type="hid" id="58" />
      </Nodes>
      <Connections>
        <Con id="17" src="1" tgt="15" wght="3.7083442555740476" />
        <Con id="20" src="4" tgt="15" wght="-0.42105329641397488" />
        <Con id="26" src="10" tgt="15" wght="0.79306658486061243" />
        <Con id="28" src="12" tgt="15" wght="0.347253335911914" />
        <Con id="31" src="11" tgt="15" wght="-0.039310045101107471" />
        <Con id="32" src="14" tgt="15" wght="4.4095394023222427" />
        <Con id="33" src="6" tgt="15" wght="-3.8596448109057744" />
        <Con id="36" src="3" tgt="15" wght="-2.8519103997520445" />
        <Con id="38" src="15" tgt="15" wght="-2.0341696519495418" />
        <Con id="40" src="7" tgt="15" wght="-5" />
        <Con id="45" src="0" tgt="15" wght="5" />
        <Con id="47" src="4" tgt="46" wght="4.44679175632794" />
        <Con id="48" src="46" tgt="15" wght="-0.23560593426778004" />
        <Con id="49" src="2" tgt="15" wght="1.0130226045924202" />
        <Con id="59" src="3" tgt="58" wght="0.50741833923526969" />
        <Con id="60" src="58" tgt="15" wght="3.429744034027828" />
        <Con id="67" src="5" tgt="46" wght="3.4360304885885364" />
        <Con id="68" src="7" tgt="58" wght="2.7808526683606902" />
        <Con id="94" src="11" tgt="46" wght="-3.2477393092711333" />
        <Con id="112" src="9" tgt="58" wght="-0.97127918542149139" />
      </Connections>
    </Network>
  </Networks>
</Root>