<?xml version="1.0" encoding="utf-8"?>
<Root>
  <ActivationFunctions>
    <Fn id="0" name="SteepenedSigmoid" prob="1" />
  </ActivationFunctions>
  <Networks>
    <Network id="55534" birthGen="277" fitness="14821.510986328125">
      <Nodes>
        <Node type="bias" id="0" />
        <Node type="in" id="1" />
        <Node type="in" id="2" />
        <Node type="in" id="3" />
        <Node type="in" id="4" />
        <Node type="in" id="5" />
        <Node type="in" id="6" />
        <Node type="in" id="7" />
        <Node type="in" id="8" />
        <Node type="in" id="9" />
        <Node type="in" id="10" />
        <Node type="in" id="11" />
        <Node type="in" id="12" />
        <Node type="in" id="13" />
        <Node type="in" id="14" />
        <Node type="out" id="15" />
        <Node type="hid" id="46" />
        <Node type="hid" id="58" />
      </Nodes>
      <Connections>
        <Con id="17" src="1" tgt="15" wght="-4.4145576572345808" />
        <Con id="20" src="4" tgt="15" wght="-0.42276218171687224" />
        <Con id="26" src="10" tgt="15" wght="0.79640800758306929" />
        <Con id="28" src="12" tgt="15" wght="-1.4500349834667008" />
        <Con id="31" src="11" tgt="15" wght="-0.023702940083171611" />
        <Con id="32" src="14" tgt="15" wght="4.9909833685089788" />
        <Con id="33" src="6" tgt="15" wght="-3.8529956949360562" />
        <Con id="36" src="3" tgt="15" wght="-3.2203206606209278" />
        <Con id="38" src="15" tgt="15" wght="-0.11858867947012186" />
        <Con id="40" src="7" tgt="15" wght="4.0312018877744835" />
        <Con id="45" src="0" tgt="15" wght="1.69233678999269" />
        <Con id="47" src="4" tgt="46" wght="4.88709152063132" />
        <Con id="48" src="46" tgt="15" wght="-1.2158451462164521" />
        <Con id="49" src="2" tgt="15" wght="2.4836010206374586" />
        <Con id="57" src="9" tgt="46" wght="-3.7064058938995004" />
        <Con id="59" src="3" tgt="58" wght="2.7959291404113173" />
        <Con id="60" src="58" tgt="15" wght="3.6995637296272159" />
        <Con id="67" src="5" tgt="46" wght="3.5251126303819045" />
        <Con id="68" src="7" tgt="58" wght="2.4799446605087265" />
        <Con id="94" src="11" tgt="46" wght="3.4761309289544582" />
        <Con id="112" src="9" tgt="58" wght="-1.0048928733897775" />
        <Con id="145" src="0" tgt="58" wght="5" />
      </Connections>
    </Network>
  </Networks>
</Root>