<?xml version="1.0" encoding="utf-8"?>
<Root>
  <ActivationFunctions>
    <Fn id="0" name="SteepenedSigmoid" prob="1" />
  </ActivationFunctions>
  <Networks>
    <Network id="66162" birthGen="330" fitness="14244.3427734375">
      <Nodes>
        <Node type="bias" id="0" />
        <Node type="in" id="1" />
        <Node type="in" id="2" />
        <Node type="in" id="3" />
        <Node type="in" id="4" />
        <Node type="in" id="5" />
        <Node type="in" id="6" />
        <Node type="in" id="7" />
        <Node type="in" id="8" />
        <Node type="in" id="9" />
        <Node type="in" id="10" />
        <Node type="in" id="11" />
        <Node type="in" id="12" />
        <Node type="in" id="13" />
        <Node type="in" id="14" />
        <Node type="out" id="15" />
        <Node type="hid" id="46" />
        <Node type="hid" id="58" />
      </Nodes>
      <Connections>
        <Con id="17" src="1" tgt="15" wght="-4.4252134641282108" />
        <Con id="20" src="4" tgt="15" wght="-0.24665289383329442" />
        <Con id="26" src="10" tgt="15" wght="0.77204504532770923" />
        <Con id="28" src="12" tgt="15" wght="-0.85402616912302831" />
        <Con id="31" src="11" tgt="15" wght="-0.023702940083171611" />
        <Con id="32" src="14" tgt="15" wght="3.5500532808498675" />
        <Con id="33" src="6" tgt="15" wght="5" />
        <Con id="36" src="3" tgt="15" wght="-3.2340190166037015" />
        <Con id="38" src="15" tgt="15" wght="-3.458438774953922" />
        <Con id="40" src="7" tgt="15" wght="0.47480146605547685" />
        <Con id="45" src="0" tgt="15" wght="-3.9126352763162249" />
        <Con id="47" src="4" tgt="46" wght="4.8403173467943343" />
        <Con id="48" src="46" tgt="15" wght="-1.2145633129883879" />
        <Con id="49" src="2" tgt="15" wght="3.4629038975183843" />
        <Con id="57" src="9" tgt="46" wght="-3.6602191012262315" />
        <Con id="59" src="3" tgt="58" wght="1.8387550310499954" />
        <Con id="60" src="58" tgt="15" wght="3.6995637296272159" />
        <Con id="67" src="5" tgt="46" wght="-3.7875888636335731" />
        <Con id="68" src="7" tgt="58" wght="0.97154882206198723" />
        <Con id="94" src="11" tgt="46" wght="2.2010692013675115" />
        <Con id="112" src="9" tgt="58" wght="-1.6195142730695147" />
        <Con id="145" src="0" tgt="58" wght="0.81056858228857653" />
      </Connections>
    </Network>
  </Networks>
</Root>