<?xml version="1.0" encoding="utf-8"?>
<Root>
  <ActivationFunctions>
    <Fn id="0" name="SteepenedSigmoid" prob="1" />
  </ActivationFunctions>
  <Networks>
    <Network id="17201" birthGen="85" fitness="14338.343017578125">
      <Nodes>
        <Node type="bias" id="0" />
        <Node type="in" id="1" />
        <Node type="in" id="2" />
        <Node type="in" id="3" />
        <Node type="in" id="4" />
        <Node type="in" id="5" />
        <Node type="in" id="6" />
        <Node type="in" id="7" />
        <Node type="in" id="8" />
        <Node type="in" id="9" />
        <Node type="in" id="10" />
        <Node type="in" id="11" />
        <Node type="in" id="12" />
        <Node type="in" id="13" />
        <Node type="in" id="14" />
        <Node type="out" id="15" />
        <Node type="hid" id="46" />
        <Node type="hid" id="58" />
      </Nodes>
      <Connections>
        <Con id="17" src="1" tgt="15" wght="-0.039556986439333142" />
        <Con id="20" src="4" tgt="15" wght="-0.221828727431034" />
        <Con id="26" src="10" tgt="15" wght="0.79306658486061243" />
        <Con id="28" src="12" tgt="15" wght="-1.5282829561054585" />
        <Con id="31" src="11" tgt="15" wght="-0.027691702384295094" />
        <Con id="32" src="14" tgt="15" wght="4.4826581235975027" />
        <Con id="33" src="6" tgt="15" wght="-4.2329276725649834" />
        <Con id="36" src="3" tgt="15" wght="-4.2034781317270831" />
        <Con id="38" src="15" tgt="15" wght="-1.287362832896257" />
        <Con id="40" src="7" tgt="15" wght="4.9973117285016206" />
        <Con id="45" src="0" tgt="15" wght="4.4084951309382276" />
        <Con id="47" src="4" tgt="46" wght="1.7824595054797694" />
        <Con id="48" src="46" tgt="15" wght="1.129858148066458" />
        <Con id="49" src="2" tgt="15" wght="-0.18517529148536074" />
        <Con id="59" src="3" tgt="58" wght="-1.7688319445710281" />
        <Con id="60" src="58" tgt="15" wght="4.97908250016353" />
        <Con id="68" src="7" tgt="58" wght="-3.527203449801211" />
      </Connections>
    </Network>
  </Networks>
</Root>