<?xml version="1.0" encoding="utf-8"?>
<Root>
  <ActivationFunctions>
    <Fn id="0" name="SteepenedSigmoid" prob="1" />
  </ActivationFunctions>
  <Networks>
    <Network id="10815" birthGen="89" fitness="13.792169083357999">
      <Nodes>
        <Node type="bias" id="0" />
        <Node type="in" id="1" />
        <Node type="in" id="2" />
        <Node type="out" id="3" />
        <Node type="hid" id="27" />
        <Node type="hid" id="36" />
        <Node type="hid" id="56" />
      </Nodes>
      <Connections>
        <Con id="6" src="2" tgt="3" wght="-0.41141643286130891" />
        <Con id="8" src="3" tgt="3" wght="3.8371920393950729" />
        <Con id="10" src="1" tgt="3" wght="1.4790617784660427" />
        <Con id="29" src="27" tgt="3" wght="-5" />
        <Con id="37" src="0" tgt="36" wght="-4.5060320619365486" />
        <Con id="38" src="36" tgt="3" wght="0.92466718201705733" />
        <Con id="55" src="2" tgt="27" wght="-3.9574490287070865" />
        <Con id="57" src="1" tgt="56" wght="4.8772354701112173" />
        <Con id="58" src="56" tgt="27" wght="5" />
      </Connections>
    </Network>
  </Networks>
</Root>