<?xml version="1.0" encoding="utf-8"?>
<Root>
  <ActivationFunctions>
    <Fn id="0" name="SteepenedSigmoid" prob="1" />
  </ActivationFunctions>
  <Networks>
    <Network id="1267916" birthGen="2503" fitness="2244.3287963867187">
      <Nodes>
        <Node type="bias" id="0" />
        <Node type="in" id="1" />
        <Node type="in" id="2" />
        <Node type="in" id="3" />
        <Node type="in" id="4" />
        <Node type="in" id="5" />
        <Node type="in" id="6" />
        <Node type="in" id="7" />
        <Node type="in" id="8" />
        <Node type="in" id="9" />
        <Node type="in" id="10" />
        <Node type="in" id="11" />
        <Node type="in" id="12" />
        <Node type="in" id="13" />
        <Node type="in" id="14" />
        <Node type="out" id="15" />
        <Node type="hid" id="37" />
        <Node type="hid" id="43" />
        <Node type="hid" id="53" />
        <Node type="hid" id="96" />
        <Node type="hid" id="120" />
        <Node type="hid" id="181" />
        <Node type="hid" id="214" />
        <Node type="hid" id="421" />
        <Node type="hid" id="503" />
        <Node type="hid" id="519" />
        <Node type="hid" id="842" />
        <Node type="hid" id="899" />
        <Node type="hid" id="1272" />
        <Node type="hid" id="1623" />
        <Node type="hid" id="2084" />
        <Node type="hid" id="2654" />
        <Node type="hid" id="2785" />
        <Node type="hid" id="3360" />
        <Node type="hid" id="3397" />
        <Node type="hid" id="3747" />
        <Node type="hid" id="3811" />
        <Node type="hid" id="4250" />
        <Node type="hid" id="4977" />
        <Node type="hid" id="5161" />
        <Node type="hid" id="5305" />
        <Node type="hid" id="5458" />
        <Node type="hid" id="5591" />
      </Nodes>
      <Connections>
        <Con id="26" src="10" tgt="15" wght="6.7008672056897457E-05" />
        <Con id="31" src="1" tgt="15" wght="2.4014714566417719" />
        <Con id="32" src="6" tgt="15" wght="5" />
        <Con id="33" src="7" tgt="15" wght="-0.39324356193382032" />
        <Con id="34" src="8" tgt="15" wght="5" />
        <Con id="38" src="4" tgt="37" wght="4.6445597158280316" />
        <Con id="40" src="15" tgt="15" wght="-0.1355336040903927" />
        <Con id="41" src="0" tgt="15" wght="-3.7528370536910596" />
        <Con id="42" src="12" tgt="15" wght="-4.3680095813372235" />
        <Con id="44" src="4" tgt="43" wght="-1.5193054057312636" />
        <Con id="45" src="43" tgt="15" wght="2.2870713443921677" />
        <Con id="49" src="2" tgt="15" wght="-2.3992346457051" />
        <Con id="51" src="1" tgt="37" wght="1.9369971193559905" />
        <Con id="54" src="37" tgt="53" wght="2.9749923948630683" />
        <Con id="55" src="53" tgt="15" wght="-4.5804635271642207" />
        <Con id="56" src="3" tgt="15" wght="-4.977773729826521" />
        <Con id="65" src="2" tgt="37" wght="-3.2448553349013469" />
        <Con id="76" src="12" tgt="43" wght="-1.2689332151785493" />
        <Con id="85" src="10" tgt="37" wght="-2.8419658846278852" />
        <Con id="97" src="4" tgt="96" wght="-5" />
        <Con id="98" src="96" tgt="15" wght="5" />
        <Con id="100" src="14" tgt="37" wght="4.0536215761676431" />
        <Con id="106" src="0" tgt="43" wght="3.9085253805539355" />
        <Con id="112" src="10" tgt="43" wght="-2.8916730307716976" />
        <Con id="113" src="37" tgt="15" wght="-1.7623338526301" />
        <Con id="121" src="14" tgt="120" wght="1.4139391043826957" />
        <Con id="122" src="120" tgt="15" wght="1.7283714486215234" />
        <Con id="147" src="37" tgt="96" wght="1.0455325603367922" />
        <Con id="150" src="5" tgt="96" wght="5" />
        <Con id="172" src="2" tgt="96" wght="2.8201950576900296" />
        <Con id="173" src="13" tgt="43" wght="1.71276435614178" />
        <Con id="183" src="181" tgt="15" wght="-2.8005847426887076" />
        <Con id="195" src="11" tgt="96" wght="-0.44774371526824797" />
        <Con id="213" src="2" tgt="120" wght="1.9956136262214217" />
        <Con id="215" src="4" tgt="214" wght="-3.6719872920241619" />
        <Con id="221" src="96" tgt="120" wght="3.4157535061240196" />
        <Con id="263" src="15" tgt="96" wght="3.4276376908516624" />
        <Con id="332" src="14" tgt="214" wght="2.3845632281154394" />
        <Con id="335" src="9" tgt="181" wght="-3.2935598381990472" />
        <Con id="392" src="11" tgt="181" wght="2.2921720283007581" />
        <Con id="401" src="214" tgt="43" wght="-3.7978516375887224" />
        <Con id="402" src="1" tgt="120" wght="0.92581290751695633" />
        <Con id="422" src="8" tgt="421" wght="2.0221298933368352" />
        <Con id="425" src="37" tgt="181" wght="-1.9546779990196228" />
        <Con id="504" src="53" tgt="503" wght="2.837541621238278" />
        <Con id="520" src="4" tgt="519" wght="-0.70739900664442756" />
        <Con id="574" src="6" tgt="503" wght="-3.5378373131524947" />
        <Con id="648" src="96" tgt="519" wght="3.3502418594434857" />
        <Con id="686" src="503" tgt="96" wght="-0.21299941808853398" />
        <Con id="762" src="15" tgt="503" wght="1.0028427702202454" />
        <Con id="843" src="2" tgt="842" wght="-3.8840694276909438" />
        <Con id="880" src="421" tgt="421" wght="0.44625971463446124" />
        <Con id="897" src="2" tgt="421" wght="-2.6789742495479203" />
        <Con id="901" src="899" tgt="96" wght="3.4357002989101151" />
        <Con id="956" src="3" tgt="519" wght="2.9915938192227185" />
        <Con id="990" src="842" tgt="43" wght="2.6650236620588408" />
        <Con id="1112" src="43" tgt="37" wght="-3.3667971857554808" />
        <Con id="1134" src="12" tgt="503" wght="-0.067128821947939565" />
        <Con id="1268" src="12" tgt="899" wght="2.1700479555875063" />
        <Con id="1273" src="43" tgt="1272" wght="-3.4364871783397772" />
        <Con id="1274" src="1272" tgt="96" wght="3.5449873330071568" />
        <Con id="1291" src="899" tgt="842" wght="2.5007628939487812" />
        <Con id="1313" src="842" tgt="519" wght="-3.2920864364132285" />
        <Con id="1415" src="9" tgt="503" wght="-1.1079870701810415" />
        <Con id="1480" src="5" tgt="1272" wght="0.58497635317528085" />
        <Con id="1506" src="421" tgt="519" wght="1.33498439331397" />
        <Con id="1546" src="899" tgt="214" wght="0.52788126032844873" />
        <Con id="1579" src="3" tgt="899" wght="2.8567795957024051" />
        <Con id="1624" src="421" tgt="1623" wght="5" />
        <Con id="1625" src="1623" tgt="181" wght="-0.40950881782685694" />
        <Con id="1671" src="214" tgt="842" wght="-5" />
        <Con id="1742" src="14" tgt="1272" wght="2.3825535478609208" />
        <Con id="1754" src="1272" tgt="120" wght="-0.46192232707276448" />
        <Con id="1830" src="842" tgt="1623" wght="-5" />
        <Con id="1862" src="214" tgt="1272" wght="-1.754340640618139" />
        <Con id="1867" src="1" tgt="1623" wght="-1.4926851378083126" />
        <Con id="1907" src="1272" tgt="1272" wght="3.5725672077387571" />
        <Con id="1944" src="4" tgt="1623" wght="-3.8447056842833436" />
        <Con id="1953" src="96" tgt="1623" wght="0.10791019984839291" />
        <Con id="2085" src="2" tgt="2084" wght="-3.1899270576650034" />
        <Con id="2086" src="2084" tgt="899" wght="2.7964001170944264" />
        <Con id="2117" src="421" tgt="1272" wght="3.2155319922636507" />
        <Con id="2211" src="2084" tgt="842" wght="-3.5192963837771805" />
        <Con id="2311" src="7" tgt="2084" wght="4.6245977794751525" />
        <Con id="2358" src="3" tgt="2084" wght="1.6723820737452366" />
        <Con id="2379" src="4" tgt="2084" wght="-4.5947661893081859" />
        <Con id="2446" src="120" tgt="2084" wght="0.73248303918481972" />
        <Con id="2484" src="96" tgt="2084" wght="-3.4098794057469797" />
        <Con id="2655" src="503" tgt="2654" wght="3.6643125440140838" />
        <Con id="2656" src="2654" tgt="37" wght="1.0168080450966954" />
        <Con id="2786" src="842" tgt="2785" wght="1.6102373250849928" />
        <Con id="2787" src="2785" tgt="503" wght="1.7681456193263263" />
        <Con id="2849" src="1272" tgt="2654" wght="5" />
        <Con id="2855" src="8" tgt="2785" wght="-1.0888551751006725" />
        <Con id="2996" src="37" tgt="2654" wght="-5" />
        <Con id="3361" src="214" tgt="3360" wght="-3.1148363680747644" />
        <Con id="3362" src="3360" tgt="96" wght="0.45144571179287724" />
        <Con id="3363" src="899" tgt="3360" wght="-0.070651007148195721" />
        <Con id="3398" src="519" tgt="3397" wght="-2.8010895357967449" />
        <Con id="3399" src="3397" tgt="37" wght="3.8039349041207235" />
        <Con id="3547" src="0" tgt="3397" wght="-5" />
        <Con id="3718" src="120" tgt="3360" wght="-4.5654392622918918" />
        <Con id="3748" src="8" tgt="3747" wght="5" />
        <Con id="3749" src="3747" tgt="37" wght="3.046097531914711" />
        <Con id="3787" src="421" tgt="3397" wght="0.674283076752228" />
        <Con id="3812" src="11" tgt="3811" wght="0.45116764027625322" />
        <Con id="3817" src="3747" tgt="181" wght="-0.21624535575796566" />
        <Con id="3837" src="3360" tgt="1623" wght="-2.4594807256524538" />
        <Con id="3861" src="14" tgt="3811" wght="4.12165002899344" />
        <Con id="3901" src="421" tgt="3811" wght="0.026027699797691782" />
        <Con id="3973" src="3397" tgt="1623" wght="2.1240259846672416" />
        <Con id="4093" src="1272" tgt="2785" wght="3.2077385950833559" />
        <Con id="4117" src="3811" tgt="37" wght="-0.46535591385365738" />
        <Con id="4157" src="2785" tgt="37" wght="1.6468945806112165" />
        <Con id="4165" src="3360" tgt="899" wght="0.18891049229093571" />
        <Con id="4218" src="1623" tgt="3811" wght="-0.58550262034997325" />
        <Con id="4251" src="3" tgt="4250" wght="-5" />
        <Con id="4252" src="4250" tgt="96" wght="-1.3401927920984547" />
        <Con id="4397" src="4250" tgt="120" wght="4.4675137217201089" />
        <Con id="4455" src="3747" tgt="4250" wght="0.0312419265724746" />
        <Con id="4658" src="4250" tgt="3747" wght="-4.7886567502969655" />
        <Con id="4978" src="3811" tgt="4977" wght="-0.91087721288204193" />
        <Con id="4979" src="4977" tgt="421" wght="3.6093287263065577" />
        <Con id="5162" src="2084" tgt="5161" wght="0.6874789231514733" />
        <Con id="5163" src="5161" tgt="899" wght="4.1100062224324008" />
        <Con id="5234" src="519" tgt="4250" wght="1.5799680139660215" />
        <Con id="5306" src="9" tgt="5305" wght="3.6529474969633977" />
        <Con id="5307" src="5305" tgt="214" wght="3.8635694524896245" />
        <Con id="5459" src="53" tgt="5458" wght="0.62935458917229292" />
        <Con id="5460" src="5458" tgt="2084" wght="4.7897465094610761" />
        <Con id="5592" src="1272" tgt="5591" wght="0.067520487793846479" />
        <Con id="5593" src="5591" tgt="842" wght="3.7954396007135376" />
        <Con id="5649" src="3811" tgt="5305" wght="-1.2175723189096732" />
        <Con id="5739" src="12" tgt="5458" wght="1.0082635173318297" />
        <Con id="5973" src="5305" tgt="5591" wght="-1.2202749587595463" />
        <Con id="6143" src="842" tgt="3811" wght="4.3197613395750523" />
      </Connections>
    </Network>
  </Networks>
</Root>